17,21,51,6,85,97,89,103,19,22,23,36,32,5,93,99,68,42,95,81,29,45,96,7,55,75,86,41,62,69,58,87,88,3,90,91,92,60,94,73,26,67,98,76,100,25,102,39,18,64,8,15,61,63,46,56,112,104,35,59,30,105,74,82,65,106,10,28,72,108,47,109,115,20,107,110,37,77,40,111,2,50,31,12,84,53,80,113,4,79,66,70,71,13,38,57,33,44,78,14,52,34,101,24,43,9,27,16,1,114,54,0,49,11,83,48
0.117379656892,0.936523151439,0.35767106588,-0.627479577245,0.791772436392,,,,-0.60379702183,-0.373151643682,0.384645231339,0.373001855363,0.915779060301,-0.815322810462,,,0.889189511982,-0.439112015871,,0.247344414111,0.756285006859,-0.104212947648,,-0.308878545914,-0.893274909766,-0.669291605766,-0.143817620257,0.49633130876,0.388800315455,0.173110081004,0.178611073807,,,-0.395334854736,,,,-0.795331142344,,0.614782577419,-0.82991157726,0.0297782241166,,0.855017160792,,0.789213327008,,0.50028862989,-0.71922612281,-0.900093082108,-0.206465051539,0.340935020357,-0.171888024361,-0.171641460946,0.817191006186,0.148235210984,,,-0.368968737988,0.399516720042,-0.803306332334,,-0.204646326029,0.501884868055,0.071792811831,,-0.161610971193,-0.660339160871,-0.721447305498,,-0.412771703253,,,0.601489137351,,,0.669251343795,-0.304468280509,0.977722177813,,-0.999771250365,-0.961266084259,-0.15778474999,-0.591095500537,-0.46014421647,-0.468906681256,0.766612182412,,-0.706488218366,0.451995970701,0.32758929044,0.806803830576,-0.725050591708,0.756234872782,-0.963423445312,-0.706542850188,0.066330569946,-0.793547986845,0.501624206272,-0.945224813604,-0.576743768,0.383754227901,,0.752778304592,0.578558656903,0.0776334680067,-0.921890433534,-0.165390395266,0.440648986884,,-0.0168536814393,-0.165955990595,-0.739942855763,0.370439000794,-0.302203316044,-0.424449322827
