0,1,2,3,4,5,6,7,8,9,10,11,12,13,14,15,16,17,18,19,20,21,22,23,24,25,26,27,28,29,30,31,32,33,34,35,36,37,38,39,40,41,42,43,44,45,46,47,48,49,50,51,52,53,54,55,56,57,58,59,60,61,62,63,64,65,66,67,68,69,70,71,72,73,74,75,76,77,78,79,80,81,82,83,84,85,86
-0.165955990595,0.440648986884,-0.999771250365,-0.395334854736,-0.706488218366,-0.815322810462,-0.627479577245,-0.308878545914,-0.206465051539,0.0776334680067,-0.161610971193,0.370439000794,-0.591095500537,0.756234872782,-0.945224813604,0.340935020357,-0.165390395266,0.117379656892,-0.71922612281,-0.60379702183,0.601489137351,0.936523151439,-0.373151643682,0.384645231339,0.752778304592,0.789213327008,-0.82991157726,-0.921890433534,-0.660339160871,0.756285006859,-0.803306332334,-0.15778474999,0.915779060301,0.066330569946,0.383754227901,-0.368968737988,0.373001855363,0.669251343795,-0.963423445312,0.50028862989,0.977722177813,0.49633130876,-0.439112015871,0.578558656903,-0.793547986845,-0.104212947648,0.817191006186,-0.412771703253,-0.424449322827,-0.739942855763,-0.961266084259,0.35767106588,-0.576743768,-0.468906681256,-0.0168536814393,-0.893274909766,0.148235210984,-0.706542850188,0.178611073807,0.399516720042,-0.795331142344,-0.171888024361,0.388800315455,-0.171641460946,-0.900093082108,0.071792811831,0.32758929044,0.0297782241166,0.889189511982,0.173110081004,0.806803830576,-0.725050591708,-0.721447305498,0.614782577419,-0.204646326029,-0.669291605766,0.855017160792,-0.304468280509,0.501624206272,0.451995970701,0.766612182412,0.247344414111,0.501884868055,-0.302203316044,-0.46014421647,0.791772436392,-0.143817620257
